{"type":"RNN","options":{"inputSize":4,"inputRange":4,"hiddenSizes":[20,20],"outputSize":4,"learningRate":0.01,"decayRate":0.999,"smoothEps":1e-8,"regc":0.000001,"clipval":5,"json":null,"dataFormatter":{"values":[[0],[0],[0],[0],[1],[1],[1],[1]],"indexTable":{"0":0,"1":1,"stop-input":2,"start-output":3},"characterTable":{"0":0,"1":1,"2":"stop-input","3":"start-output"},"characters":[0,1,"stop-input","start-output"]}},"input":{"rows":5,"columns":4,"weights":{"0":-0.3635682165622711,"1":0.17846791446208954,"2":-0.06956797093153,"3":0.9035413861274719,"4":-1.230037808418274,"5":1.5325459241867065,"6":-1.4044346809387207,"7":-0.09258369356393814,"8":-0.15489442646503448,"9":-1.71604585647583,"10":-0.211734339594841,"11":0.6898552775382996,"12":-1.048649549484253,"13":-0.6518518328666687,"14":0.45825883746147156,"15":0.9010353088378906,"16":0.03998497128486633,"17":-0.23574960231781006,"18":0.1639760285615921,"19":-0.0036266271490603685}},"hiddenLayers":[{"weight":{"rows":20,"columns":4,"weights":{"0":0.1274663805961609,"1":-0.11701209843158722,"2":0.048021215945482254,"3":-0.1590844988822937,"4":0.8204675912857056,"5":0.6128939986228943,"6":0.6513248682022095,"7":-1.216801643371582,"8":0.1644996851682663,"9":-0.12188657373189926,"10":0.058858275413513184,"11":0.5609395503997803,"12":2.050548553466797,"13":0.4166285991668701,"14":0.5522586703300476,"15":-0.1492954045534134,"16":0.28562691807746887,"17":1.349136233329773,"18":0.15555399656295776,"19":0.4976593852043152,"20":0.5491138696670532,"21":0.49109482765197754,"22":0.18948306143283844,"23":-0.2062223255634308,"24":0.8603721261024475,"25":0.45635050535202026,"26":0.6714997887611389,"27":-0.3152206838130951,"28":0.02469751052558422,"29":1.5446193218231201,"30":-0.49581488966941833,"31":-0.7445188164710999,"32":1.8109766244888306,"33":-0.14296142756938934,"34":0.5977743864059448,"35":-1.0575885772705078,"36":0.1620965600013733,"37":0.7335122227668762,"38":0.24289920926094055,"39":-0.07425487041473389,"40":0.24275991320610046,"41":-0.03898172453045845,"42":-0.3156569004058838,"43":0.12202254682779312,"44":0.3543047308921814,"45":0.2940250635147095,"46":-0.04725285619497299,"47":-0.8588753938674927,"48":-0.8683839440345764,"49":0.12006314843893051,"50":0.821794867515564,"51":0.4575697183609009,"52":-1.2802006006240845,"53":-0.21152906119823456,"54":-0.19597233831882477,"55":0.9192079305648804,"56":0.09435442090034485,"57":0.11215628683567047,"58":0.3628445565700531,"59":-0.22951623797416687,"60":-0.3262091875076294,"61":-0.5905798673629761,"62":-0.6451718807220459,"63":-0.5219990015029907,"64":0.8682736754417419,"65":0.19562403857707977,"66":1.7909914255142212,"67":-0.0017970884218811989,"68":0.6966548562049866,"69":0.42806190252304077,"70":1.1133922338485718,"71":-0.1020520031452179,"72":0.01779799908399582,"73":-0.029116420075297356,"74":0.10344265401363373,"75":-0.019615240395069122,"76":0.9124194979667664,"77":-0.4174445569515228,"78":-0.04340358078479767,"79":-0.7830997705459595}},"transition":{"rows":20,"columns":20,"weights":{"0":-0.30214548110961914,"1":-0.003534438321366906,"2":0.0004781528259627521,"3":-0.29509350657463074,"4":0.056861840188503265,"5":0.045542486011981964,"6":-0.013791749253869057,"7":-0.2661406993865967,"8":0.04397842288017273,"9":-0.07615075260400772,"10":-0.14381055533885956,"11":-0.03046485036611557,"12":-0.24798330664634705,"13":-0.029181841760873795,"14":-0.06892053037881851,"15":0.0028806377667933702,"16":-0.23063963651657104,"17":-0.2071184366941452,"18":0.034144844859838486,"19":-0.043200913816690445,"20":0.2730865478515625,"21":-0.8534467816352844,"22":-1.0813790559768677,"23":0.0224152822047472,"24":-0.3555549681186676,"25":-0.43051832914352417,"26":-0.5096883177757263,"27":0.19087286293506622,"28":-1.6130014657974243,"29":0.04888926446437836,"30":0.28362226486206055,"31":0.17369480431079865,"32":0.25271937251091003,"33":0.1269230842590332,"34":0.06250312179327011,"35":-0.2841339707374573,"36":-0.778095543384552,"37":-0.07275931537151337,"38":0.045936569571495056,"39":0.17314498126506805,"40":-0.099135622382164,"41":-0.3186567425727844,"42":0.08528998494148254,"43":0.03606349229812622,"44":-0.27860987186431885,"45":-0.14009106159210205,"46":0.04838889092206955,"47":-0.04958277568221092,"48":0.05375979468226433,"49":0.17135745286941528,"50":-0.6288638114929199,"51":-0.7522561550140381,"52":-0.3854244649410248,"53":-0.25632864236831665,"54":-0.5514518618583679,"55":-0.5806719660758972,"56":-0.6814213991165161,"57":-0.2660737931728363,"58":0.012590941973030567,"59":-0.5185221433639526,"60":0.1772068589925766,"61":-0.19822952151298523,"62":-0.10360104590654373,"63":-0.8186221122741699,"64":-0.3142927885055542,"65":0.5660003423690796,"66":-0.09270381182432175,"67":-0.07004360109567642,"68":0.008753598667681217,"69":-1.6048206090927124,"70":1.1164367198944092,"71":-0.6168393492698669,"72":-0.9539190530776978,"73":-0.2987910211086273,"74":-0.01423888560384512,"75":-0.4716695547103882,"76":0.3629838228225708,"77":-0.5117897987365723,"78":-0.0682607963681221,"79":-0.5367611050605774,"80":-0.08301267772912979,"81":-2.887953281402588,"82":-1.3969619274139404,"83":-0.036905258893966675,"84":-0.36291468143463135,"85":-0.4397183656692505,"86":-0.3203456997871399,"87":-0.11061394214630127,"88":-1.8150575160980225,"89":-0.3527579605579376,"90":-0.6997155547142029,"91":-4.936238765716553,"92":0.9867565035820007,"93":-0.24314764142036438,"94":0.006640807259827852,"95":0.15613645315170288,"96":-0.07062260806560516,"97":-0.04959466680884361,"98":0.044529207050800323,"99":0.6994338035583496,"100":-0.28281673789024353,"101":-0.5900717377662659,"102":-0.042667947709560394,"103":0.6369572281837463,"104":-0.09270332008600235,"105":-0.7436050772666931,"106":-0.7411113977432251,"107":-1.1866167783737183,"108":0.06749443709850311,"109":-0.6806905269622803,"110":-1.4880095720291138,"111":-0.8346503376960754,"112":-0.5998167991638184,"113":-0.026775015518069267,"114":-0.014906080439686775,"115":0.04479939863085747,"116":-0.8554649353027344,"117":-0.3042493760585785,"118":-0.07183194160461426,"119":-0.3304014503955841,"120":0.22679641842842102,"121":-0.643380880355835,"122":-0.03179492428898811,"123":-0.039918266236782074,"124":-0.010170157998800278,"125":-0.8127896189689636,"126":-0.5155957341194153,"127":-0.05506083741784096,"128":-0.03204791247844696,"129":-0.6711329817771912,"130":0.23198743164539337,"131":-0.2825774550437927,"132":-0.3085050582885742,"133":-0.009088026359677315,"134":0.2288302183151245,"135":-0.392164021730423,"136":-0.33404454588890076,"137":-0.5487970113754272,"138":-0.055854927748441696,"139":0.015176596119999886,"140":-0.011315269395709038,"141":1.792250633239746,"142":-0.011840073391795158,"143":0.13530901074409485,"144":0.03142072260379791,"145":-0.25297656655311584,"146":0.28728705644607544,"147":-0.3669522702693939,"148":3.9848852157592773,"149":0.7427849173545837,"150":-0.6352013349533081,"151":2.1526973247528076,"152":-0.33072274923324585,"153":-0.023403765633702278,"154":0.3599892556667328,"155":-0.309299498796463,"156":0.9805298447608948,"157":0.2697310149669647,"158":-0.009534387849271297,"159":0.9417389631271362,"160":-0.07282077521085739,"161":0.039215799421072006,"162":-0.5055264830589294,"163":-0.016789691522717476,"164":-0.31290552020072937,"165":-0.035582996904850006,"166":0.0007581380195915699,"167":-0.3084483742713928,"168":0.9164896607398987,"169":-0.028802070766687393,"170":-0.9235644340515137,"171":-0.7831388115882874,"172":-0.9106131792068481,"173":-0.03402883559465408,"174":0.05644918605685234,"175":-0.23771023750305176,"176":0.006441253703087568,"177":-0.07046114653348923,"178":-0.07480108737945557,"179":-0.23120099306106567,"180":0.022236064076423645,"181":-1.2015185356140137,"182":-0.3707573413848877,"183":-0.04599122703075409,"184":-0.7232232093811035,"185":-0.5912767052650452,"186":-0.4920821487903595,"187":0.026560695841908455,"188":-0.44357338547706604,"189":-0.5840150713920593,"190":-1.4603443145751953,"191":-1.5781134366989136,"192":-0.3060010075569153,"193":-0.006649165414273739,"194":-0.2427372932434082,"195":-0.022830164059996605,"196":0.1611609011888504,"197":0.020852886140346527,"198":-0.03523200750350952,"199":-0.28593313694000244,"200":-0.2893441319465637,"201":-0.38631558418273926,"202":-0.1597447693347931,"203":0.04484202340245247,"204":-0.7470067143440247,"205":0.06735724955797195,"206":-0.006360027939081192,"207":-0.4403969943523407,"208":-0.1580306887626648,"209":-1.3218144178390503,"210":0.3699099123477936,"211":0.10008198767900467,"212":-1.293039321899414,"213":-0.11170905083417892,"214":0.35707995295524597,"215":-0.37940746545791626,"216":0.01760251633822918,"217":0.006603015586733818,"218":-0.06267356872558594,"219":-1.1988121271133423,"220":0.28993040323257446,"221":-0.7876240015029907,"222":0.450119286775589,"223":-0.3108472526073456,"224":0.8905084133148193,"225":-0.6213520169258118,"226":-0.5308256149291992,"227":0.2849150598049164,"228":-1.228145956993103,"229":-0.9676069021224976,"230":-7.691700458526611,"231":-2.0179555416107178,"232":-0.7061733603477478,"233":0.3050753176212311,"234":0.02806544490158558,"235":-0.030129238963127136,"236":-1.2490322589874268,"237":-0.06185366213321686,"238":0.06906839460134506,"239":-0.6604461669921875,"240":-0.04159487411379814,"241":0.13887304067611694,"242":-0.34453538060188293,"243":-0.1556038111448288,"244":0.005374758504331112,"245":0.03572534769773483,"246":0.08771933615207672,"247":0.2122366726398468,"248":-0.013145391829311848,"249":-0.4776492714881897,"250":-0.23744910955429077,"251":0.8430618643760681,"252":0.26624855399131775,"253":0.3410843312740326,"254":0.06230604648590088,"255":-1.0208934545516968,"256":-0.36646366119384766,"257":0.0663098692893982,"258":0.028402531519532204,"259":0.41905468702316284,"260":0.024560563266277313,"261":-0.20143714547157288,"262":0.6049277782440186,"263":-0.34593260288238525,"264":0.3404569923877716,"265":-0.21144890785217285,"266":-0.318653404712677,"267":-0.05216268450021744,"268":-0.06621750444173813,"269":-0.20279058814048767,"270":0.061976369470357895,"271":-0.8210495114326477,"272":-0.3689557611942291,"273":0.28642749786376953,"274":0.031642936170101166,"275":0.12930606305599213,"276":-0.03372294455766678,"277":0.017808735370635986,"278":-0.05530227720737457,"279":0.023199740797281265,"280":-0.057591456919908524,"281":-0.11347796022891998,"282":0.029418669641017914,"283":0.02332829125225544,"284":-0.3211439847946167,"285":0.00036053627263754606,"286":0.04838301241397858,"287":-0.05761396512389183,"288":0.04040951654314995,"289":-0.09934267401695251,"290":0.22222737967967987,"291":0.14892578125,"292":-0.7707570791244507,"293":0.06372185051441193,"294":-0.282236248254776,"295":0.03819175064563751,"296":0.05701802298426628,"297":0.06560520827770233,"298":-0.027349669486284256,"299":-0.387041300535202,"300":-0.011390325613319874,"301":-1.138206124305725,"302":-0.05038987100124359,"303":-0.3146691620349884,"304":0.6778749823570251,"305":-0.10129459202289581,"306":-0.9873100519180298,"307":-0.26442956924438477,"308":-4.0174665451049805,"309":-0.7555279731750488,"310":-1.5397650003433228,"311":-0.9917997717857361,"312":0.7900809049606323,"313":0.13170306384563446,"314":-0.003839196404442191,"315":-0.6242371201515198,"316":-0.8842107653617859,"317":-2.949643850326538,"318":0.04285497963428497,"319":-1.0449254512786865,"320":-0.008868877775967121,"321":-0.1565086394548416,"322":-0.18074920773506165,"323":0.8379944562911987,"324":-0.04979637637734413,"325":0.0756385549902916,"326":-0.2115931659936905,"327":-0.4624970257282257,"328":-0.2831764221191406,"329":0.1939154863357544,"330":-0.07792285084724426,"331":-0.2694493532180786,"332":0.9157572388648987,"333":-0.2044229656457901,"334":0.2795129716396332,"335":0.2095138132572174,"336":-0.1435771882534027,"337":-0.0467517226934433,"338":0.03884873166680336,"339":0.4869961440563202,"340":-0.06553170084953308,"341":-0.02258710376918316,"342":-0.01862226240336895,"343":0.35091543197631836,"344":0.23823150992393494,"345":0.2563455104827881,"346":0.0426180399954319,"347":-0.03470569849014282,"348":-0.05439510941505432,"349":-0.059061892330646515,"350":0.2069866955280304,"351":0.3000721037387848,"352":-0.23735147714614868,"353":-0.07131653279066086,"354":-0.2098405808210373,"355":0.04623638466000557,"356":0.023611802607774734,"357":-0.07471886277198792,"358":0.03629585728049278,"359":0.25514113903045654,"360":-0.022600669413805008,"361":-0.014031974598765373,"362":-0.006297258194535971,"363":-0.029427237808704376,"364":-0.018353888764977455,"365":0.033535368740558624,"366":-0.0065710837952792645,"367":-0.11755387485027313,"368":-0.0580822229385376,"369":0.027628613635897636,"370":0.01725933328270912,"371":-0.01690668985247612,"372":0.017869342118501663,"373":-0.043498311191797256,"374":-0.06776104867458344,"375":0.05297502130270004,"376":-0.026041477918624878,"377":-0.14881430566310883,"378":-0.000960258417762816,"379":0.03159581497311592,"380":-0.36250513792037964,"381":1.9380252361297607,"382":-0.34258538484573364,"383":-0.8856486082077026,"384":0.1754993051290512,"385":0.19366416335105896,"386":0.6174894571304321,"387":-1.1123523712158203,"388":4.225586414337158,"389":0.27416419982910156,"390":0.2477986365556717,"391":1.3484854698181152,"392":0.34365227818489075,"393":-0.3131265342235565,"394":-0.06324096769094467,"395":-0.06510378420352936,"396":1.322862148284912,"397":0.5101620554924011,"398":0.012058425694704056,"399":1.0849570035934448}},"bias":{"rows":20,"columns":1,"weights":{"0":-0.19805507361888885,"1":0.20859754085540771,"2":0.06383097916841507,"3":-0.2902815341949463,"4":0.8359857797622681,"5":-0.13799288868904114,"6":-0.12979109585285187,"7":-0.492228627204895,"8":-0.11776222288608551,"9":-0.11674939095973969,"10":-0.03747992217540741,"11":0.40964192152023315,"12":-0.841569185256958,"13":0.6187183856964111,"14":-0.18078503012657166,"15":-0.5828468799591064,"16":-0.3004758954048157,"17":-0.3271912634372711,"18":-0.21120907366275787,"19":0.005624068435281515}}},{"weight":{"rows":20,"columns":20,"weights":{"0":-0.12288698554039001,"1":-0.22672252357006073,"2":-0.26670223474502563,"3":-0.02713954821228981,"4":-0.40688976645469666,"5":-0.28675132989883423,"6":-0.3521808087825775,"7":-0.026525674387812614,"8":0.04212221875786781,"9":-0.31067535281181335,"10":-0.4202576279640198,"11":-0.2802528738975525,"12":-0.2467631697654724,"13":-0.05956333875656128,"14":0.056490927934646606,"15":-0.026976391673088074,"16":-0.23059417307376862,"17":-0.03389754891395569,"18":0.01974969357252121,"19":-0.3637232184410095,"20":0.017237650230526924,"21":-0.7142634391784668,"22":-1.2483192682266235,"23":1.6002053022384644,"24":-0.6698482036590576,"25":-0.04558355733752251,"26":-0.5306239724159241,"27":-0.9593245983123779,"28":-0.41687819361686707,"29":-1.2339980602264404,"30":0.27544447779655457,"31":-0.15938346087932587,"32":0.00012080268788849935,"33":0.23555287718772888,"34":-0.5243588089942932,"35":0.46558475494384766,"36":-1.2983050346374512,"37":-0.22355219721794128,"38":0.029850788414478302,"39":-1.0524158477783203,"40":-0.060656771063804626,"41":-0.044330570846796036,"42":-0.2984582483768463,"43":-0.1613842099905014,"44":-0.35361599922180176,"45":-0.2730128765106201,"46":-0.15267181396484375,"47":-0.24788841605186462,"48":-0.020911559462547302,"49":-0.7158490419387817,"50":-0.30699145793914795,"51":-0.09363158792257309,"52":0.193926140666008,"53":-0.09457553178071976,"54":0.06157299876213074,"55":-0.19951605796813965,"56":-0.3746771216392517,"57":-0.03766878321766853,"58":-0.0452130101621151,"59":-0.3084329664707184,"60":0.3624643087387085,"61":-0.5522066354751587,"62":0.08104868233203888,"63":-0.12865975499153137,"64":-0.24139529466629028,"65":-0.6469624638557434,"66":-0.5907201766967773,"67":-0.33493494987487793,"68":0.0629882737994194,"69":-0.2508629858493805,"70":-0.5622950196266174,"71":-0.6153188347816467,"72":-0.5450559258460999,"73":0.01344454288482666,"74":0.0010558876674622297,"75":-0.14839734137058258,"76":-0.6463810205459595,"77":-0.3020433485507965,"78":-0.05977246165275574,"79":-0.24494919180870056,"80":-0.33413609862327576,"81":0.05093950778245926,"82":0.13654248416423798,"83":0.17167037725448608,"84":-0.047876808792352676,"85":-0.0007199724786914885,"86":-0.027628758922219276,"87":0.0839538499712944,"88":0.08552372455596924,"89":0.43045154213905334,"90":0.09151729196310043,"91":-0.30120185017585754,"92":-0.7576830387115479,"93":-0.7260351777076721,"94":-0.14042586088180542,"95":-0.8848143219947815,"96":0.038379017263650894,"97":0.13571031391620636,"98":-0.002173208398744464,"99":0.0895974263548851,"100":0.08762817084789276,"101":-0.390563428401947,"102":-0.4360048770904541,"103":-0.37303370237350464,"104":-0.27378472685813904,"105":-0.12432786077260971,"106":-0.06047084927558899,"107":0.003434989834204316,"108":-0.1872500628232956,"109":-0.34658169746398926,"110":-1.5145459175109863,"111":-0.023631935939192772,"112":0.16390901803970337,"113":-0.14991775155067444,"114":-0.245863139629364,"115":-0.06343074142932892,"116":-0.5333803296089172,"117":-0.316768079996109,"118":0.018793925642967224,"119":-0.39490360021591187,"120":-0.031084047630429268,"121":-0.22505557537078857,"122":0.13264821469783783,"123":-1.6325271129608154,"124":-0.15814533829689026,"125":-0.14106261730194092,"126":-0.0099419504404068,"127":-0.6086523532867432,"128":-1.4999750852584839,"129":0.3532480001449585,"130":1.0719541311264038,"131":3.2032909393310547,"132":-0.07274387031793594,"133":0.40270668268203735,"134":-0.5326326489448547,"135":1.7546590566635132,"136":-0.07243775576353073,"137":-0.33238041400909424,"138":-0.05020417645573616,"139":0.12113988399505615,"140":0.028095630928874016,"141":-0.3537966310977936,"142":0.04109717905521393,"143":0.0048667797818779945,"144":-0.3322155177593231,"145":-0.31125113368034363,"146":-0.31054362654685974,"147":-0.024506963789463043,"148":0.04056542366743088,"149":-0.3608805537223816,"150":-0.26388120651245117,"151":-0.3100114166736603,"152":-0.22477418184280396,"153":-0.05140884593129158,"154":0.02586125023663044,"155":0.004329604096710682,"156":-0.31735461950302124,"157":0.0019931020215153694,"158":-0.03873257339000702,"159":-0.3578142821788788,"160":0.13887688517570496,"161":-0.5607369542121887,"162":-0.4375336468219757,"163":-0.3304428458213806,"164":-0.041557468473911285,"165":-0.4261757731437683,"166":-0.5230712890625,"167":-0.021804919466376305,"168":-0.0006677131168544292,"169":-0.6562034487724304,"170":-0.12408378720283508,"171":-0.2646182179450989,"172":0.08280554413795471,"173":-0.34445562958717346,"174":0.06195680797100067,"175":-0.292942613363266,"176":-0.07887838035821915,"177":-0.1254802942276001,"178":0.038385968655347824,"179":-0.24131107330322266,"180":0.07435663044452667,"181":-1.0321813821792603,"182":-0.23302683234214783,"183":-0.6327099800109863,"184":-0.28862282633781433,"185":-0.8143612146377563,"186":-0.568444550037384,"187":0.5053084492683411,"188":-0.2713329493999481,"189":-0.21144618093967438,"190":-1.2766177654266357,"191":0.47813060879707336,"192":0.1707059144973755,"193":-0.36108461022377014,"194":-0.047304701060056686,"195":0.8146935105323792,"196":-1.022987723350525,"197":-0.3641413152217865,"198":-0.05523934215307236,"199":0.17826832830905914,"200":-0.19404247403144836,"201":-0.055192142724990845,"202":-0.25540751218795776,"203":0.22082315385341644,"204":0.1829635351896286,"205":-0.07385203242301941,"206":-0.008251804858446121,"207":-2.0547711849212646,"208":-0.5860725045204163,"209":0.7509450316429138,"210":-0.8144394755363464,"211":0.3069744408130646,"212":-0.49573585391044617,"213":-0.4622248411178589,"214":-0.253980427980423,"215":-0.05975991487503052,"216":-0.6334975361824036,"217":0.2318333238363266,"218":0.10523458570241928,"219":1.6392477750778198,"220":-0.03487413749098778,"221":-0.33793652057647705,"222":0.45157501101493835,"223":2.486128091812134,"224":-0.3351792097091675,"225":-0.2056744545698166,"226":-0.9204140901565552,"227":-1.85191810131073,"228":1.1679004430770874,"229":-1.2463209629058838,"230":-0.7193291783332825,"231":-0.18930022418498993,"232":-0.3965476453304291,"233":0.019439946860074997,"234":-0.3735986649990082,"235":-1.223176121711731,"236":-0.4427125155925751,"237":-0.6014450788497925,"238":-0.025989092886447906,"239":0.23099683225154877,"240":0.11541091650724411,"241":-0.6432502865791321,"242":0.18593181669712067,"243":-1.6557320356369019,"244":-0.3704545795917511,"245":-0.5994757413864136,"246":-0.582339882850647,"247":-0.3160809278488159,"248":0.017254123464226723,"249":-0.5279534459114075,"250":-0.697219967842102,"251":-0.22153039276599884,"252":0.026361534371972084,"253":-0.09484481811523438,"254":0.06441105157136917,"255":-0.8603119254112244,"256":-0.8958410620689392,"257":-0.5304870009422302,"258":-0.01271891314536333,"259":-0.5444424152374268,"260":0.05381496995687485,"261":-0.20953181385993958,"262":0.026302190497517586,"263":0.01921873912215233,"264":0.0021340332459658384,"265":-0.34491315484046936,"266":-0.34040167927742004,"267":0.0008088170434348285,"268":0.01249076146632433,"269":-0.022805429995059967,"270":-0.06953370571136475,"271":-0.3031311631202698,"272":-0.07212059199810028,"273":-0.007983178831636906,"274":-0.05287240445613861,"275":0.01253864262253046,"276":0.03541342169046402,"277":-0.041295453906059265,"278":0.05469357222318649,"279":-0.04944855347275734,"280":-0.05443121865391731,"281":-0.3350319266319275,"282":0.015454159118235111,"283":0.07009085267782211,"284":-0.3277117908000946,"285":0.022490717470645905,"286":-0.28108784556388855,"287":0.022509649395942688,"288":0.034349847584962845,"289":-0.33809036016464233,"290":-0.22437772154808044,"291":-0.04532011225819588,"292":-0.3488626182079315,"293":0.06122058629989624,"294":0.04908594861626625,"295":-0.05567271634936333,"296":-0.31708770990371704,"297":0.05880912393331528,"298":-0.05856214463710785,"299":-0.25032758712768555,"300":0.21022559702396393,"301":-0.3230683505535126,"302":0.04236571490764618,"303":1.3146083354949951,"304":-0.4164312779903412,"305":-0.07466992735862732,"306":-0.09534672647714615,"307":-1.0235909223556519,"308":-0.08977296948432922,"309":-1.1216886043548584,"310":-0.44696059823036194,"311":-0.19576852023601532,"312":0.20352798700332642,"313":0.2011304646730423,"314":0.02756076492369175,"315":-0.0765746608376503,"316":-1.2626315355300903,"317":-0.5152336955070496,"318":-0.019483603537082672,"319":-0.8618253469467163,"320":-0.030028589069843292,"321":-0.259614497423172,"322":-1.569617748260498,"323":-0.3113081753253937,"324":-0.7564021944999695,"325":1.2371742725372314,"326":0.24748823046684265,"327":-0.11238513886928558,"328":0.23508086800575256,"329":-0.7432663440704346,"330":-1.2669661045074463,"331":-0.8896927833557129,"332":1.162964105606079,"333":-0.028754327446222305,"334":-0.20894679427146912,"335":-0.480263352394104,"336":0.32511594891548157,"337":0.2112877070903778,"338":0.06909475475549698,"339":-0.6606911420822144,"340":0.025530731305480003,"341":-1.3551692962646484,"342":-1.090146541595459,"343":3.034369945526123,"344":-1.2431796789169312,"345":-0.56890869140625,"346":-0.8270717263221741,"347":0.906639575958252,"348":-0.10009998083114624,"349":-0.6761417984962463,"350":-0.3163999319076538,"351":-3.8885037899017334,"352":0.09631723910570145,"353":-0.007097436115145683,"354":-0.17049415409564972,"355":0.8256096243858337,"356":-2.313791036605835,"357":-0.7843457460403442,"358":0.06229345500469208,"359":1.526294231414795,"360":-0.25290217995643616,"361":-0.5937550663948059,"362":-0.06452377885580063,"363":1.266018271446228,"364":-0.41838881373405457,"365":-0.28735050559043884,"366":-0.008287451229989529,"367":0.6668123602867126,"368":-0.6750319600105286,"369":-0.1118820458650589,"370":-0.7924544215202332,"371":-1.131739616394043,"372":-0.05158240348100662,"373":-0.2355051040649414,"374":-0.1536390781402588,"375":-0.10208358615636826,"376":-0.6543104648590088,"377":-0.5600663423538208,"378":0.04546082019805908,"379":1.4585072994232178,"380":-0.01235233061015606,"381":-0.054939210414886475,"382":0.0009189082775264978,"383":-0.03774009644985199,"384":-0.2921430766582489,"385":-0.03255130723118782,"386":-0.010971903800964355,"387":-0.06206246092915535,"388":-0.04252595826983452,"389":-0.27429842948913574,"390":-0.3425964117050171,"391":-0.008832396008074284,"392":-0.034705910831689835,"393":-0.0255624670535326,"394":-0.007263667415827513,"395":-0.042720112949609756,"396":-0.256936639547348,"397":0.03482580929994583,"398":0.012469153851270676,"399":-0.06824147701263428}},"transition":{"rows":20,"columns":20,"weights":{"0":-0.2516038715839386,"1":-0.3594476580619812,"2":-0.2769244313240051,"3":0.010826718993484974,"4":-0.354017972946167,"5":-0.26073670387268066,"6":-0.24971023201942444,"7":-0.06263166666030884,"8":-0.258889377117157,"9":-0.2826073169708252,"10":-0.3085627257823944,"11":-0.05692887306213379,"12":0.06767651438713074,"13":-0.005452247802168131,"14":0.05862053483724594,"15":-0.29157766699790955,"16":-0.2669523358345032,"17":-0.26654016971588135,"18":-0.5085433125495911,"19":-0.25529155135154724,"20":0.07271146774291992,"21":-0.2383122742176056,"22":0.41740450263023376,"23":-0.2133539915084839,"24":1.3452320098876953,"25":-0.1753486841917038,"26":-1.3143398761749268,"27":-0.23459643125534058,"28":0.1940397024154663,"29":-0.2539909780025482,"30":0.9766573905944824,"31":-0.27598536014556885,"32":-0.028046121820807457,"33":0.11771540343761444,"34":-0.23712538182735443,"35":0.09167253226041794,"36":-1.0761125087738037,"37":-0.5158995985984802,"38":0.3597513437271118,"39":-0.015806369483470917,"40":0.0062510110437870026,"41":0.18219594657421112,"42":-0.2881283164024353,"43":-0.03400078043341637,"44":-0.49114179611206055,"45":-0.4462900161743164,"46":-0.6091794967651367,"47":-0.32804208993911743,"48":-0.3467467725276947,"49":-0.41187888383865356,"50":0.04162700101733208,"51":-0.016738764941692352,"52":0.15181592106819153,"53":-0.03029581904411316,"54":-0.28069624304771423,"55":0.024493146687746048,"56":-0.26168835163116455,"57":-0.3590855896472931,"58":-0.47260189056396484,"59":-0.05794801563024521,"60":-0.05160817876458168,"61":0.030271489173173904,"62":-0.4263136088848114,"63":-0.4803925156593323,"64":-0.6464299559593201,"65":-0.10457541793584824,"66":-0.8529970645904541,"67":-0.28027844429016113,"68":-0.06174596771597862,"69":-0.27991172671318054,"70":-0.11478416621685028,"71":0.0008827766287140548,"72":-0.4983048439025879,"73":0.010419684462249279,"74":-0.22948195040225983,"75":0.09817863255739212,"76":-0.2800140082836151,"77":-0.06163594871759415,"78":-0.4117492437362671,"79":-0.04189181700348854,"80":0.28024590015411377,"81":-0.36110633611679077,"82":-0.7289304137229919,"83":0.3331446349620819,"84":0.04792831838130951,"85":-0.24268722534179688,"86":0.006291741039603949,"87":-0.03412676975131035,"88":-0.6314277052879333,"89":-3.8200864791870117,"90":0.872987687587738,"91":-0.17774167656898499,"92":-0.056647270917892456,"93":-0.0998905599117279,"94":-0.18138068914413452,"95":0.24362558126449585,"96":-0.0015622894279658794,"97":-0.687402606010437,"98":0.183090478181839,"99":0.2471594214439392,"100":-0.0463736392557621,"101":0.006329106632620096,"102":-0.5415251851081848,"103":-0.2298070341348648,"104":-0.4909127354621887,"105":-0.6024072766304016,"106":-0.7671769857406616,"107":-0.356492280960083,"108":-0.21003247797489166,"109":-0.9015974998474121,"110":-0.2869125008583069,"111":-0.014970945194363594,"112":-0.09145905822515488,"113":-0.10439553111791611,"114":0.012839294038712978,"115":0.07761088013648987,"116":-0.8948000073432922,"117":-0.12455128878355026,"118":-0.297490656375885,"119":-0.014482839964330196,"120":-0.25879138708114624,"121":-0.18594633042812347,"122":0.11797486990690231,"123":0.35196614265441895,"124":2.029040575027466,"125":1.4410812854766846,"126":-0.6506489515304565,"127":0.3390681743621826,"128":0.5869066715240479,"129":3.2951650619506836,"130":0.17551429569721222,"131":-0.20619770884513855,"132":0.4008629024028778,"133":0.012882948853075504,"134":0.3025378882884979,"135":-0.29231736063957214,"136":-1.7912570238113403,"137":0.3691760301589966,"138":-0.6190764904022217,"139":-0.230058491230011,"140":-0.009494386613368988,"141":-0.21737687289714813,"142":-0.29487335681915283,"143":-0.31701454520225525,"144":0.05142214521765709,"145":-0.2289515882730484,"146":-0.3364809453487396,"147":-0.30853942036628723,"148":-0.24765855073928833,"149":-0.29472580552101135,"150":0.021557757630944252,"151":0.019628237932920456,"152":-0.21919561922550201,"153":-0.01627257652580738,"154":-0.31718742847442627,"155":-0.2469199150800705,"156":-0.20857451856136322,"157":-0.04587102308869362,"158":-0.03943202272057533,"159":0.028968699276447296,"160":-0.04360977187752724,"161":0.1548440158367157,"162":-0.5046470165252686,"163":-0.21966727077960968,"164":-0.47785812616348267,"165":-0.5355955958366394,"166":-0.5107735991477966,"167":-0.33634963631629944,"168":-0.3022374212741852,"169":-0.9960055947303772,"170":0.0165377389639616,"171":0.014691891148686409,"172":-0.12657952308654785,"173":0.02438945882022381,"174":0.04437990114092827,"175":0.1072736382484436,"176":-0.28135648369789124,"177":0.0033998386934399605,"178":-0.44360271096229553,"179":0.0701175332069397,"180":-0.056274786591529846,"181":-0.19105105102062225,"182":-0.2856543958187103,"183":-0.12018696963787079,"184":-1.2121260166168213,"185":-0.6033514738082886,"186":-1.025647521018982,"187":-0.2858162224292755,"188":-0.5056490898132324,"189":-0.5185844302177429,"190":-0.36649858951568604,"191":-0.3124770522117615,"192":-0.05173937603831291,"193":0.03755132481455803,"194":-0.3632594347000122,"195":-0.2675131559371948,"196":-1.0660631656646729,"197":-0.43351423740386963,"198":0.22187639772891998,"199":-0.014688339084386826,"200":0.23629194498062134,"201":-0.9252223968505859,"202":-0.9212120771408081,"203":-0.03359748050570488,"204":0.05254624783992767,"205":-0.2689571976661682,"206":-0.1266595423221588,"207":-0.06637441366910934,"208":-0.5355055928230286,"209":-0.9919222593307495,"210":-0.6403932571411133,"211":0.2967480421066284,"212":-0.22997772693634033,"213":0.048197269439697266,"214":-0.0395384281873703,"215":-0.666716456413269,"216":-0.589817225933075,"217":-0.8829129934310913,"218":0.49103543162345886,"219":0.3093799948692322,"220":-0.0053810905665159225,"221":0.03341848775744438,"222":-0.40522322058677673,"223":-0.2184455394744873,"224":0.748214066028595,"225":-1.0798983573913574,"226":-0.6076588034629822,"227":-0.23467552661895752,"228":-0.22697249054908752,"229":-10.495051383972168,"230":-1.0398261547088623,"231":0.03170093148946762,"232":-0.3030224144458771,"233":-0.008159886114299297,"234":-0.3145095705986023,"235":-0.03849025070667267,"236":-0.7875144481658936,"237":-0.24713893234729767,"238":-0.2604532539844513,"239":0.024889685213565826,"240":-0.014502307400107384,"241":0.21183030307292938,"242":0.07028818875551224,"243":-0.3452342450618744,"244":-0.3368692398071289,"245":0.2617422342300415,"246":-0.5521888732910156,"247":-0.2204391360282898,"248":0.0996125191450119,"249":0.08630652725696564,"250":-0.11971025168895721,"251":-0.1403091996908188,"252":-0.35570648312568665,"253":-0.008052674122154713,"254":-0.2903963029384613,"255":0.1117657721042633,"256":-2.5716054439544678,"257":-0.28741908073425293,"258":0.22100594639778137,"259":0.019366182386875153,"260":0.01761270873248577,"261":-0.14173199236392975,"262":-0.2026638388633728,"263":0.05917978286743164,"264":-0.26455679535865784,"265":-0.2670012414455414,"266":0.011026574298739433,"267":0.055882226675748825,"268":-0.2931106984615326,"269":-0.21407905220985413,"270":0.010381062515079975,"271":-0.06573452055454254,"272":0.061484113335609436,"273":-0.13238096237182617,"274":0.025243112817406654,"275":-0.19322536885738373,"276":-0.056162137538194656,"277":-0.04905344918370247,"278":-0.18643374741077423,"279":0.07133542746305466,"280":-0.07141296565532684,"281":-0.30901506543159485,"282":-0.3523625135421753,"283":-0.33410507440567017,"284":0.025021405890583992,"285":-0.32966578006744385,"286":-0.06383638828992844,"287":-0.29089465737342834,"288":-0.23675096035003662,"289":-0.3464904725551605,"290":-0.04170036315917969,"291":-0.026818810030817986,"292":-0.2727988064289093,"293":-0.013392181135714054,"294":-0.32081151008605957,"295":-0.31390881538391113,"296":-0.21323354542255402,"297":-0.009163806214928627,"298":0.022867320105433464,"299":0.01902770809829235,"300":-0.0018916032277047634,"301":0.25216367840766907,"302":0.3915000557899475,"303":-0.2930932343006134,"304":-0.23924005031585693,"305":-0.09653204679489136,"306":-0.6167726516723633,"307":-0.2679319679737091,"308":0.2140333205461502,"309":-0.027626102790236473,"310":0.6878904104232788,"311":0.04378052055835724,"312":-0.03236890584230423,"313":0.029689744114875793,"314":-0.26741716265678406,"315":0.1340068280696869,"316":-0.9323582649230957,"317":-0.1125716045498848,"318":0.2847701609134674,"319":0.027815688401460648,"320":-0.2863989770412445,"321":0.41308367252349854,"322":0.18213357031345367,"323":0.05606614425778389,"324":0.5523466467857361,"325":-0.5194150805473328,"326":0.14113536477088928,"327":0.2549070119857788,"328":-0.3613501489162445,"329":-0.06863628327846527,"330":0.029208630323410034,"331":0.2507540285587311,"332":0.6501654386520386,"333":-0.044878214597702026,"334":0.06610479950904846,"335":0.08490869402885437,"336":-0.5690593123435974,"337":0.049508143216371536,"338":-0.3471316993236542,"339":-0.24480092525482178,"340":0.2297625094652176,"341":-1.0285006761550903,"342":-0.3949829339981079,"343":-0.006999235600233078,"344":2.3227202892303467,"345":0.06211422383785248,"346":-1.0044299364089966,"347":0.034720297902822495,"348":-0.25465720891952515,"349":-1.6242587566375732,"350":1.0812232494354248,"351":-1.2472171783447266,"352":-0.17386144399642944,"353":0.048942841589450836,"354":0.007448628079146147,"355":-0.34709060192108154,"356":-0.7750076055526733,"357":-1.0825730562210083,"358":0.0784824937582016,"359":0.18662981688976288,"360":0.3342609107494354,"361":-0.12782537937164307,"362":-0.11874684691429138,"363":0.27048423886299133,"364":-0.5469387173652649,"365":-0.1709955930709839,"366":-1.1665184497833252,"367":0.057908594608306885,"368":-0.591671347618103,"369":-1.1838183403015137,"370":0.8534787893295288,"371":-0.24209743738174438,"372":0.10369763523340225,"373":-0.04208073392510414,"374":0.003423298243433237,"375":-0.17236045002937317,"376":0.21553796529769897,"377":-0.28718212246894836,"378":2.7029919624328613,"379":0.29527515172958374,"380":-0.23546206951141357,"381":-0.008798505179584026,"382":-0.060117222368717194,"383":-0.03916500136256218,"384":-0.2843635082244873,"385":-0.05643583461642265,"386":-0.2983762323856354,"387":0.015785928815603256,"388":0.034328531473875046,"389":-0.010503457859158516,"390":-0.10229779779911041,"391":0.07272322475910187,"392":0.011141398921608925,"393":0.040084581822156906,"394":0.05690900608897209,"395":-0.022092003375291824,"396":-0.2712412476539612,"397":-0.3374530076980591,"398":-0.3033718168735504,"399":-0.30484941601753235}},"bias":{"rows":20,"columns":1,"weights":{"0":0,"1":-0.3822377324104309,"2":-0.08801093697547913,"3":0,"4":1.1507532596588135,"5":-0.07998539507389069,"6":-0.9177585244178772,"7":-0.2912498712539673,"8":-0.05509356036782265,"9":0.13903169333934784,"10":0.048784155398607254,"11":-0.3735997676849365,"12":0,"13":-0.2936638593673706,"14":-0.28927040100097656,"15":-0.16459769010543823,"16":-0.2923766076564789,"17":-0.4438793361186981,"18":-0.36150601506233215,"19":-0.2936111390590668}}}],"outputConnector":{"rows":5,"columns":20,"weights":{"0":0.28759101033210754,"1":-2.0071399211883545,"2":-0.4179314970970154,"3":0.018473919481039047,"4":1.1261578798294067,"5":-0.32797470688819885,"6":0.046916279941797256,"7":0.24005883932113647,"8":0.24857354164123535,"9":1.6717376708984375,"10":0.7506474256515503,"11":7.644059658050537,"12":0.6965063214302063,"13":0.17214082181453705,"14":0.2148713916540146,"15":1.533637523651123,"16":-0.4222228527069092,"17":2.134112596511841,"18":2.4841370582580566,"19":0.30679693818092346,"20":-0.2812098562717438,"21":-2.161616563796997,"22":0.18378837406635284,"23":-0.14700719714164734,"24":0.18243351578712463,"25":0.6168687343597412,"26":-3.611844539642334,"27":0.23937562108039856,"28":0.03960218280553818,"29":-0.24724029004573822,"30":0.2826691269874573,"31":-1.5354558229446411,"32":-0.3755747675895691,"33":-0.2535991072654724,"34":0.31790658831596375,"35":-0.9793535470962524,"36":-12.26931381225586,"37":-3.2824084758758545,"38":-0.09453338384628296,"39":-0.27202871441841125,"40":0.2786683440208435,"41":-1.8821377754211426,"42":0.18701323866844177,"43":-0.19110293686389923,"44":0.7675419449806213,"45":0.09528175741434097,"46":-2.866504430770874,"47":-0.25306129455566406,"48":0.26073020696640015,"49":0.23980386555194855,"50":0.24765580892562866,"51":-0.8597232699394226,"52":-0.07070354372262955,"53":-0.07718711346387863,"54":-0.2851828932762146,"55":0.24497336149215698,"56":-11.768441200256348,"57":-2.489097833633423,"58":0.5476946234703064,"59":0.33588042855262756,"60":0.27739477157592773,"61":4.162153720855713,"62":0.608522355556488,"63":0.5915945172309875,"64":-1.5548157691955566,"65":-0.38987839221954346,"66":5.040537357330322,"67":0.3228866159915924,"68":0.48426496982574463,"69":-4.242894172668457,"70":-0.9085467457771301,"71":-3.978411912918091,"72":0.8706594109535217,"73":0.34508463740348816,"74":0.25866496562957764,"75":1.0460846424102783,"76":-1.8333635330200195,"77":1.1315263509750366,"78":-1.658098578453064,"79":-0.33582398295402527,"80":0.015752993524074554,"81":0.6275753378868103,"82":-0.1130768209695816,"83":0.017831603065133095,"84":-5.3254313468933105,"85":-0.573409914970398,"86":1.7077614068984985,"87":0.2656315267086029,"88":-0.025178516283631325,"89":-4.553330421447754,"90":-1.665649175643921,"91":-0.018413076177239418,"92":-0.33668461441993713,"93":0.11578282713890076,"94":0.013679228723049164,"95":0.08923470973968506,"96":14.518155097961426,"97":-1.3842062950134277,"98":0.6935895681381226,"99":0.23963022232055664}},"output":{"rows":5,"columns":1,"weights":{"0":-13.839349746704102,"1":0.9054076671600342,"2":0.9254071712493896,"3":-13.365486145019531,"4":-13.330531120300293}}}